<?xml version="1.0"?>
<opencv_storage>
<cascade>
  <stageType>BOOST</stageType>
  <featureType>HAAR</featureType>
  <height>20</height>
  <width>20</width>
  <stageParams>
    <boostType>GAB</boostType>
    <minHitRate>9.9500000476837158e-01</minHitRate>
    <maxFalseAlarm>5.0000000000000000e-01</maxFalseAlarm>
    <weightTrimRate>9.4999999999999996e-01</weightTrimRate>
    <maxDepth>1</maxDepth>
    <maxWeakCount>100</maxWeakCount></stageParams>
  <featureParams>
    <maxCatCount>0</maxCatCount>
    <featSize>1</featSize>
    <mode>BASIC</mode></featureParams>
  <stageNum>10</stageNum>
  <stages>
    <!-- stage 0 -->
    <_>
      <maxWeakCount>3</maxWeakCount>
      <stageThreshold>-1.0810838937759399e+00</stageThreshold>
      <weakClassifiers>
        <_>
          <internalNodes>
            0 -1 9 -1.9794337451457977e-02</internalNodes>
          <leafValues>
            -8.5714286565780640e-01 7.3684209585189819e-01</leafValues></_>
        <_>
          <internalNodes>
            0 -1 32 -9.9152028560638428e-03</internalNodes>
          <leafValues>
            -8.1053376197814941e-01 5.8433640003204346e-01</leafValues></_>
        <_>
          <internalNodes>
            0 -1 20 -7.8205019235610962e-04</internalNodes>
          <leafValues>
            5.8659273386001587e-01 -6.6528826951980591e-01</leafValues></_></weakClassifiers></_>
    <!-- stage 1 -->
    <_>
      <maxWeakCount>3</maxWeakCount>
      <stageThreshold>-7.1699732542037964e-01</stageThreshold>
      <weakClassifiers>
        <_>
          <internalNodes>
            0 -1 7 -9.9743895232677460e-02</internalNodes>
          <leafValues>
            -6.7088609933853149e-01 7.2413790225982666e-01</leafValues></_>
        <_>
          <internalNodes>
            0 -1 14 7.6443399302661419e-04</internalNodes>
          <leafValues>
            -5.9878510236740112e-01 6.0192984342575073e-01</leafValues></_>
        <_>
          <internalNodes>
            0 -1 5 7.1072852006182075e-04</internalNodes>
          <leafValues>
            -5.7796466350555420e-01 5.5267387628555298e-01</leafValues></_></weakClassifiers></_>
    <!-- stage 2 -->
    <_>
      <maxWeakCount>5</maxWeakCount>
      <stageThreshold>-6.7906016111373901e-01</stageThreshold>
      <weakClassifiers>
        <_>
          <internalNodes>
            0 -1 8 -5.1379024982452393e-01</internalNodes>
          <leafValues>
            -5.9523808956146240e-01 7.5000000000000000e-01</leafValues></_>
        <_>
          <internalNodes>
            0 -1 37 -2.9739618301391602e-02</internalNodes>
          <leafValues>
            -1. 2.7698510885238647e-01</leafValues></_>
        <_>
          <internalNodes>
            0 -1 23 7.5052063912153244e-03</internalNodes>
          <leafValues>
            -3.6238300800323486e-01 8.9777565002441406e-01</leafValues></_>
        <_>
          <internalNodes>
            0 -1 26 -5.8944855118170381e-04</internalNodes>
          <leafValues>
            6.4328533411026001e-01 -4.4594201445579529e-01</leafValues></_>
        <_>
          <internalNodes>
            0 -1 16 -9.2990905046463013e-02</internalNodes>
          <leafValues>
            -6.4170950651168823e-01 5.4495614767074585e-01</leafValues></_></weakClassifiers></_>
    <!-- stage 3 -->
    <_>
      <maxWeakCount>4</maxWeakCount>
      <stageThreshold>-7.0761817693710327e-01</stageThreshold>
      <weakClassifiers>
        <_>
          <internalNodes>
            0 -1 3 -3.2680421136319637e-03</internalNodes>
          <leafValues>
            6.6666668653488159e-01 -5.7142859697341919e-01</leafValues></_>
        <_>
          <internalNodes>
            0 -1 10 1.3964755926281214e-03</internalNodes>
          <leafValues>
            -4.2323085665702820e-01 7.4882459640502930e-01</leafValues></_>
        <_>
          <internalNodes>
            0 -1 30 1.7434674082323909e-03</internalNodes>
          <leafValues>
            -4.8447358608245850e-01 7.4106669425964355e-01</leafValues></_>
        <_>
          <internalNodes>
            0 -1 22 3.4645241685211658e-03</internalNodes>
          <leafValues>
            -4.0054059028625488e-01 7.9586875438690186e-01</leafValues></_></weakClassifiers></_>
    <!-- stage 4 -->
    <_>
      <maxWeakCount>4</maxWeakCount>
      <stageThreshold>-8.9993041753768921e-01</stageThreshold>
      <weakClassifiers>
        <_>
          <internalNodes>
            0 -1 11 -2.1092421375215054e-03</internalNodes>
          <leafValues>
            7.1428573131561279e-01 -5.4022985696792603e-01</leafValues></_>
        <_>
          <internalNodes>
            0 -1 17 -4.7262539737857878e-05</internalNodes>
          <leafValues>
            -6.4479047060012817e-01 4.6054568886756897e-01</leafValues></_>
        <_>
          <internalNodes>
            0 -1 4 -4.0580751374363899e-03</internalNodes>
          <leafValues>
            6.5371894836425781e-01 -4.4926556944847107e-01</leafValues></_>
        <_>
          <internalNodes>
            0 -1 35 6.5828217193484306e-03</internalNodes>
          <leafValues>
            -3.7098067998886108e-01 7.1956169605255127e-01</leafValues></_></weakClassifiers></_>
    <!-- stage 5 -->
    <_>
      <maxWeakCount>3</maxWeakCount>
      <stageThreshold>-2.6565006375312805e-01</stageThreshold>
      <weakClassifiers>
        <_>
          <internalNodes>
            0 -1 15 -1.6277853399515152e-02</internalNodes>
          <leafValues>
            -4.8936170339584351e-01 1.</leafValues></_>
        <_>
          <internalNodes>
            0 -1 28 -1.4939417596906424e-03</internalNodes>
          <leafValues>
            6.1101704835891724e-01 -4.3978512287139893e-01</leafValues></_>
        <_>
          <internalNodes>
            0 -1 34 -3.6559819709509611e-03</internalNodes>
          <leafValues>
            7.8147202730178833e-01 -3.8730540871620178e-01</leafValues></_></weakClassifiers></_>
    <!-- stage 6 -->
    <_>
      <maxWeakCount>5</maxWeakCount>
      <stageThreshold>-7.0271724462509155e-01</stageThreshold>
      <weakClassifiers>
        <_>
          <internalNodes>
            0 -1 18 1.0843103518709540e-03</internalNodes>
          <leafValues>
            4.1935482621192932e-01 -5.8441555500030518e-01</leafValues></_>
        <_>
          <internalNodes>
            0 -1 27 -1.5804382041096687e-02</internalNodes>
          <leafValues>
            -5.2213650941848755e-01 4.1954088211059570e-01</leafValues></_>
        <_>
          <internalNodes>
            0 -1 13 3.0653925932710990e-05</internalNodes>
          <leafValues>
            -5.2638053894042969e-01 4.2908436059951782e-01</leafValues></_>
        <_>
          <internalNodes>
            0 -1 33 1.5814683865755796e-04</internalNodes>
          <leafValues>
            4.4664862751960754e-01 -5.4037052392959595e-01</leafValues></_>
        <_>
          <internalNodes>
            0 -1 0 1.8392678350210190e-02</internalNodes>
          <leafValues>
            -4.2655637860298157e-01 7.2376286983489990e-01</leafValues></_></weakClassifiers></_>
    <!-- stage 7 -->
    <_>
      <maxWeakCount>5</maxWeakCount>
      <stageThreshold>-3.5970285534858704e-01</stageThreshold>
      <weakClassifiers>
        <_>
          <internalNodes>
            0 -1 31 2.9891617596149445e-02</internalNodes>
          <leafValues>
            -4.6808511018753052e-01 8.5714286565780640e-01</leafValues></_>
        <_>
          <internalNodes>
            0 -1 12 5.5003948509693146e-03</internalNodes>
          <leafValues>
            -3.3231922984123230e-01 6.9962453842163086e-01</leafValues></_>
        <_>
          <internalNodes>
            0 -1 36 -1.0056355677079409e-04</internalNodes>
          <leafValues>
            4.4841313362121582e-01 -5.2210766077041626e-01</leafValues></_>
        <_>
          <internalNodes>
            0 -1 19 2.9678392456844449e-04</internalNodes>
          <leafValues>
            3.5147929191589355e-01 -6.4698106050491333e-01</leafValues></_>
        <_>
          <internalNodes>
            0 -1 25 1.4582115225493908e-02</internalNodes>
          <leafValues>
            -3.5919097065925598e-01 8.0045193433761597e-01</leafValues></_></weakClassifiers></_>
    <!-- stage 8 -->
    <_>
      <maxWeakCount>4</maxWeakCount>
      <stageThreshold>-4.0414892137050629e-02</stageThreshold>
      <weakClassifiers>
        <_>
          <internalNodes>
            0 -1 1 3.4046373330056667e-03</internalNodes>
          <leafValues>
            -4.9450549483299255e-01 7.6470589637756348e-01</leafValues></_>
        <_>
          <internalNodes>
            0 -1 29 -1.7205098643898964e-02</internalNodes>
          <leafValues>
            3.4705650806427002e-01 -7.1109247207641602e-01</leafValues></_>
        <_>
          <internalNodes>
            0 -1 24 1.9584162146202289e-05</internalNodes>
          <leafValues>
            5.3421109914779663e-01 -4.9281382560729980e-01</leafValues></_>
        <_>
          <internalNodes>
            0 -1 6 3.4834933467209339e-03</internalNodes>
          <leafValues>
            -4.2717701196670532e-01 7.4912554025650024e-01</leafValues></_></weakClassifiers></_>
    <!-- stage 9 -->
    <_>
      <maxWeakCount>2</maxWeakCount>
      <stageThreshold>-1.3563881814479828e-01</stageThreshold>
      <weakClassifiers>
        <_>
          <internalNodes>
            0 -1 21 -1.2948948424309492e-03</internalNodes>
          <leafValues>
            1. -5.3846156597137451e-01</leafValues></_>
        <_>
          <internalNodes>
            0 -1 2 -3.9902999997138977e-03</internalNodes>
          <leafValues>
            4.0282270312309265e-01 -9.0972083806991577e-01</leafValues></_></weakClassifiers></_></stages>
  <features>
    <_>
      <rects>
        <_>
          0 7 16 6 -1.</_>
        <_>
          0 7 8 3 2.</_>
        <_>
          8 10 8 3 2.</_></rects>
      <tilted>0</tilted></_>
    <_>
      <rects>
        <_>
          0 17 4 2 -1.</_>
        <_>
          0 18 4 1 2.</_></rects>
      <tilted>0</tilted></_>
    <_>
      <rects>
        <_>
          1 0 3 1 -1.</_>
        <_>
          2 0 1 1 2.</_></rects>
      <tilted>0</tilted></_>
    <_>
      <rects>
        <_>
          1 2 2 6 -1.</_>
        <_>
          2 2 1 6 2.</_></rects>
      <tilted>0</tilted></_>
    <_>
      <rects>
        <_>
          1 5 2 6 -1.</_>
        <_>
          2 5 1 6 2.</_></rects>
      <tilted>0</tilted></_>
    <_>
      <rects>
        <_>
          1 6 7 4 -1.</_>
        <_>
          1 8 7 2 2.</_></rects>
      <tilted>0</tilted></_>
    <_>
      <rects>
        <_>
          1 14 4 4 -1.</_>
        <_>
          1 14 2 2 2.</_>
        <_>
          3 16 2 2 2.</_></rects>
      <tilted>0</tilted></_>
    <_>
      <rects>
        <_>
          2 0 6 7 -1.</_>
        <_>
          4 0 2 7 2.</_></rects>
      <tilted>0</tilted></_>
    <_>
      <rects>
        <_>
          2 0 12 18 -1.</_>
        <_>
          6 0 4 18 2.</_></rects>
      <tilted>0</tilted></_>
    <_>
      <rects>
        <_>
          2 1 2 3 -1.</_>
        <_>
          2 2 2 1 2.</_></rects>
      <tilted>0</tilted></_>
    <_>
      <rects>
        <_>
          2 7 2 2 -1.</_>
        <_>
          2 8 2 1 2.</_></rects>
      <tilted>0</tilted></_>
    <_>
      <rects>
        <_>
          2 14 4 2 -1.</_>
        <_>
          2 14 2 1 2.</_>
        <_>
          4 15 2 1 2.</_></rects>
      <tilted>0</tilted></_>
    <_>
      <rects>
        <_>
          3 4 12 2 -1.</_>
        <_>
          3 5 12 1 2.</_></rects>
      <tilted>0</tilted></_>
    <_>
      <rects>
        <_>
          3 14 2 6 -1.</_>
        <_>
          3 14 1 3 2.</_>
        <_>
          4 17 1 3 2.</_></rects>
      <tilted>0</tilted></_>
    <_>
      <rects>
        <_>
          4 0 10 4 -1.</_>
        <_>
          4 2 10 2 2.</_></rects>
      <tilted>0</tilted></_>
    <_>
      <rects>
        <_>
          4 4 5 3 -1.</_>
        <_>
          4 5 5 1 2.</_></rects>
      <tilted>0</tilted></_>
    <_>
      <rects>
        <_>
          4 10 15 2 -1.</_>
        <_>
          9 10 5 2 2.</_></rects>
      <tilted>0</tilted></_>
    <_>
      <rects>
        <_>
          5 3 6 1 -1.</_>
        <_>
          8 3 3 1 2.</_></rects>
      <tilted>0</tilted></_>
    <_>
      <rects>
        <_>
          5 3 6 3 -1.</_>
        <_>
          8 3 3 3 2.</_></rects>
      <tilted>0</tilted></_>
    <_>
      <rects>
        <_>
          7 8 2 12 -1.</_>
        <_>
          8 8 1 12 2.</_></rects>
      <tilted>0</tilted></_>
    <_>
      <rects>
        <_>
          7 16 2 4 -1.</_>
        <_>
          8 16 1 4 2.</_></rects>
      <tilted>0</tilted></_>
    <_>
      <rects>
        <_>
          7 17 1 2 -1.</_>
        <_>
          7 18 1 1 2.</_></rects>
      <tilted>0</tilted></_>
    <_>
      <rects>
        <_>
          8 18 9 2 -1.</_>
        <_>
          8 19 9 1 2.</_></rects>
      <tilted>0</tilted></_>
    <_>
      <rects>
        <_>
          9 18 10 2 -1.</_>
        <_>
          9 19 10 1 2.</_></rects>
      <tilted>0</tilted></_>
    <_>
      <rects>
        <_>
          10 11 6 4 -1.</_>
        <_>
          10 11 3 2 2.</_>
        <_>
          13 13 3 2 2.</_></rects>
      <tilted>0</tilted></_>
    <_>
      <rects>
        <_>
          10 16 8 4 -1.</_>
        <_>
          14 16 4 4 2.</_></rects>
      <tilted>0</tilted></_>
    <_>
      <rects>
        <_>
          10 17 2 2 -1.</_>
        <_>
          10 18 2 1 2.</_></rects>
      <tilted>0</tilted></_>
    <_>
      <rects>
        <_>
          11 17 2 3 -1.</_>
        <_>
          11 18 2 1 2.</_></rects>
      <tilted>0</tilted></_>
    <_>
      <rects>
        <_>
          12 9 4 1 -1.</_>
        <_>
          14 9 2 1 2.</_></rects>
      <tilted>0</tilted></_>
    <_>
      <rects>
        <_>
          12 17 3 3 -1.</_>
        <_>
          13 17 1 3 2.</_></rects>
      <tilted>0</tilted></_>
    <_>
      <rects>
        <_>
          12 17 6 2 -1.</_>
        <_>
          12 17 3 1 2.</_>
        <_>
          15 18 3 1 2.</_></rects>
      <tilted>0</tilted></_>
    <_>
      <rects>
        <_>
          13 0 6 10 -1.</_>
        <_>
          13 0 3 5 2.</_>
        <_>
          16 5 3 5 2.</_></rects>
      <tilted>0</tilted></_>
    <_>
      <rects>
        <_>
          13 18 3 1 -1.</_>
        <_>
          14 18 1 1 2.</_></rects>
      <tilted>0</tilted></_>
    <_>
      <rects>
        <_>
          14 13 4 2 -1.</_>
        <_>
          14 13 2 1 2.</_>
        <_>
          16 14 2 1 2.</_></rects>
      <tilted>0</tilted></_>
    <_>
      <rects>
        <_>
          15 16 5 2 -1.</_>
        <_>
          15 17 5 1 2.</_></rects>
      <tilted>0</tilted></_>
    <_>
      <rects>
        <_>
          16 9 4 6 -1.</_>
        <_>
          16 9 2 3 2.</_>
        <_>
          18 12 2 3 2.</_></rects>
      <tilted>0</tilted></_>
    <_>
      <rects>
        <_>
          18 10 2 4 -1.</_>
        <_>
          18 10 1 2 2.</_>
        <_>
          19 12 1 2 2.</_></rects>
      <tilted>0</tilted></_>
    <_>
      <rects>
        <_>
          19 8 1 6 -1.</_>
        <_>
          19 10 1 2 2.</_></rects>
      <tilted>0</tilted></_></features></cascade>
</opencv_storage>
