<?xml version="1.0"?>
<opencv_storage>
<stage3>
  <maxWeakCount>9</maxWeakCount>
  <stageThreshold>-9.5583492517471313e-01</stageThreshold>
  <weakClassifiers>
    <_>
      <internalNodes>
        0 -1 4472358 3.7782900035381317e-02</internalNodes>
      <leafValues>
        -4.9462366104125977e-01 4.8235294222831726e-01</leafValues></_>
    <_>
      <internalNodes>
        0 -1 4776215 -1.2089814990758896e-02</internalNodes>
      <leafValues>
        8.5557943582534790e-01 -2.3944188654422760e-01</leafValues></_>
    <_>
      <internalNodes>
        0 -1 4776234 8.7158253882080317e-04</internalNodes>
      <leafValues>
        -2.2690550982952118e-01 5.9955388307571411e-01</leafValues></_>
    <_>
      <internalNodes>
        0 -1 274169 7.8544793650507927e-03</internalNodes>
      <leafValues>
        -1.7170210182666779e-01 8.0861985683441162e-01</leafValues></_>
    <_>
      <internalNodes>
        0 -1 488002 1.7626318335533142e-01</internalNodes>
      <leafValues>
        2.6812282204627991e-01 -6.5625941753387451e-01</leafValues></_>
    <_>
      <internalNodes>
        0 -1 2518555 -1.1569663882255554e-02</internalNodes>
      <leafValues>
        -9.0317088365554810e-01 1.5598437190055847e-01</leafValues></_>
    <_>
      <internalNodes>
        0 -1 1043625 3.9970418438315392e-03</internalNodes>
      <leafValues>
        -2.3536278307437897e-01 6.5789991617202759e-01</leafValues></_>
    <_>
      <internalNodes>
        0 -1 1375123 1.9703913130797446e-04</internalNodes>
      <leafValues>
        2.6588293910026550e-01 -5.8373588323593140e-01</leafValues></_>
    <_>
      <internalNodes>
        0 -1 500048 7.3020718991756439e-03</internalNodes>
      <leafValues>
        -1.7986625432968140e-01 9.3166321516036987e-01</leafValues></_></weakClassifiers></stage3>
</opencv_storage>
