<?xml version="1.0"?>
<opencv_storage>
<stage14>
  <maxWeakCount>11</maxWeakCount>
  <stageThreshold>-7.9226565361022949e-01</stageThreshold>
  <weakClassifiers>
    <_>
      <internalNodes>
        0 -1 2164642 -1.6096852719783783e-02</internalNodes>
      <leafValues>
        1. -3.7299770116806030e-01</leafValues></_>
    <_>
      <internalNodes>
        0 -1 822882 2.6235519908368587e-04</internalNodes>
      <leafValues>
        1.3131596148014069e-01 -6.1082023382186890e-01</leafValues></_>
    <_>
      <internalNodes>
        0 -1 4940687 -9.6356996800750494e-04</internalNodes>
      <leafValues>
        -9.2589533329010010e-01 7.6353050768375397e-02</leafValues></_>
    <_>
      <internalNodes>
        0 -1 4946061 9.2133544967509806e-05</internalNodes>
      <leafValues>
        1.1834159493446350e-01 -7.7769643068313599e-01</leafValues></_>
    <_>
      <internalNodes>
        0 -1 739650 1.5520543791353703e-02</internalNodes>
      <leafValues>
        -2.2579917311668396e-01 4.1430756449699402e-01</leafValues></_>
    <_>
      <internalNodes>
        0 -1 3498681 2.7295449399389327e-05</internalNodes>
      <leafValues>
        2.0764583349227905e-01 -4.8654958605766296e-01</leafValues></_>
    <_>
      <internalNodes>
        0 -1 336360 3.2838888466358185e-02</internalNodes>
      <leafValues>
        -1.7227922379970551e-01 6.7849397659301758e-01</leafValues></_>
    <_>
      <internalNodes>
        0 -1 4251111 -3.5405599046498537e-03</internalNodes>
      <leafValues>
        7.2752380371093750e-01 -1.4160184562206268e-01</leafValues></_>
    <_>
      <internalNodes>
        0 -1 2873955 -1.1433928739279509e-03</internalNodes>
      <leafValues>
        6.6880810260772705e-01 -1.0899456590414047e-01</leafValues></_>
    <_>
      <internalNodes>
        0 -1 4870109 -6.6591554787009954e-04</internalNodes>
      <leafValues>
        8.2757502794265747e-01 -1.1018237471580505e-01</leafValues></_>
    <_>
      <internalNodes>
        0 -1 3306851 -4.3007796630263329e-03</internalNodes>
      <leafValues>
        7.0366328954696655e-01 -1.3997852802276611e-01</leafValues></_></weakClassifiers></stage14>
</opencv_storage>
